%YAML:1.0
---
true: !!opencv-object-detector-hog
   winSize: [ 64, 128 ]
   blockSize: [ 16, 16 ]
   blockStride: [ 8, 8 ]
   cellSize: [ 8, 8 ]
   nbins: 9
   derivAperture: 1
   winSigma: 4.
   histogramNormType: 0
   L2HysThreshold: 2.0000000000000001e-01
   gammaCorrection: 1
   nlevels: 64
   signedGradient: 0
   SVMDetector: [ -8.06962140e-03, -2.72515579e-04, -6.60436833e-03,
       2.97996588e-02, 4.15592045e-02, -1.26934145e-02, 1.62308966e-03,
       -4.07745969e-03, 1.92449298e-02, 2.14189161e-02, 1.15827480e-02,
       9.29438137e-03, -1.76934712e-03, 1.71805676e-02, 3.00451759e-02,
       -1.24322460e-03, 1.84203349e-02, 2.24756487e-02, 5.56160137e-02,
       -6.05670922e-03, -1.52523546e-02, 2.57177353e-02, -5.18813450e-03,
       -2.09017899e-02, -3.16693448e-02, -4.33031768e-02, 1.53751560e-02,
       1.24974577e-02, -4.65103239e-03, 9.25085973e-03, 8.23667180e-03,
       -1.63110197e-02, 1.87467709e-02, -3.59321071e-04, 2.60573649e-03,
       -2.15882771e-02, -1.53591037e-02, 4.25384054e-03, 2.45272964e-02,
       1.67273693e-02, 2.01682672e-02, 1.78171527e-02, -9.16470494e-03,
       1.19984075e-02, 8.19643959e-03, -9.27101448e-03, 3.93328897e-04,
       1.32400552e-02, 5.95747381e-02, 2.62058880e-02, 1.76296104e-02,
       -1.35506196e-02, 9.73075256e-03, -7.15340069e-03, 9.96111520e-03,
       4.26856568e-03, 9.86525789e-03, 1.51939914e-02, 2.79937815e-02,
       1.21201640e-02, -1.75863244e-02, 9.10521392e-03, 1.32531272e-02,
       1.51988454e-02, 2.26707794e-04, -3.14752758e-02, 6.33764453e-03,
       1.95428450e-02, 9.89389233e-03, -4.85681091e-03, 3.38723534e-03,
       3.01225414e-03, 2.03022808e-02, -1.45440304e-03, 2.41277693e-03,
       1.32630924e-02, 3.41411424e-03, 2.80333888e-02, 5.78113226e-03,
       6.27195695e-03, 1.68175269e-02, 2.27081906e-02, 1.99115369e-03,
       -5.12817409e-03, 9.53844807e-04, -4.18320065e-03, 3.79481725e-03,
       3.19515704e-03, 1.88548677e-02, 3.61892954e-02, 2.05915272e-02,
       3.26403137e-03, -1.86726509e-03, 9.88743827e-03, -4.20405855e-03,
       3.35861347e-03, 1.89228952e-02, 2.46000662e-02, -1.08795473e-02,
       4.28658724e-03, -4.35333606e-03, 1.35386651e-02, 1.35625573e-03,
       -1.32095469e-02, -1.18328743e-02, 2.53528152e-02, 3.84126194e-02,
       -5.70699899e-03, 1.90044511e-02, 2.77935546e-02, -2.92830337e-02,
       -2.71438099e-02, -1.16563123e-02, -2.71006413e-02,
       -1.54710608e-02, -8.00142996e-03, 2.01613326e-02, -5.04405657e-03,
       9.45960637e-03, 4.97175101e-03, -1.80488080e-02, -2.01485362e-02,
       5.05352300e-03, -1.63124856e-02, 1.05713168e-02, -8.33147857e-03,
       6.24008477e-03, -2.53112963e-03, 1.41820330e-02, 9.91353020e-03,
       -5.47731062e-03, -2.61343215e-02, -7.18742667e-04, 1.80862714e-02,
       -1.79771110e-02, 1.85185596e-02, -4.51354198e-02, 5.69387805e-04,
       3.47633241e-03, -3.22949588e-02, 1.06591545e-02, 8.17388948e-03,
       -6.68091327e-03, -1.78992841e-02, -2.74973810e-02, 2.67155040e-02,
       5.69822174e-03, 5.77959511e-03, 2.06943098e-02, 2.46621436e-03,
       -1.78513471e-02, 1.68609712e-02, -1.72845069e-02, -1.75168850e-02,
       -7.20660295e-03, -2.07320768e-02, -2.23060306e-02, 3.85966036e-03,
       -3.37902717e-02, -3.93326953e-02, -1.17902830e-02,
       -2.30778772e-02, 9.19287559e-03, -4.39948961e-03, 1.19210901e-02,
       -4.79068467e-03, -4.11419477e-03, 2.73633637e-02, 2.94512231e-02,
       2.61150021e-02, 1.64864175e-02, -4.48749699e-02, -4.14852519e-03,
       -2.73627974e-02, -2.97726914e-02, -5.32897655e-03, 1.87986437e-02,
       -2.02181260e-03, 1.24503197e-02, -1.03873536e-02, 2.19925940e-02,
       -1.53090945e-02, -3.02399937e-02, -2.26266757e-02, 3.15171704e-02,
       -4.61413711e-03, -1.09764724e-03, 1.70417654e-03, 2.12664027e-02,
       -6.00702013e-04, -1.77019276e-02, -1.59259420e-02,
       -1.30234016e-02, -2.22859322e-03, -4.14140411e-02, 3.49654321e-04,
       3.55796958e-03, 3.80389625e-03, 2.87152492e-02, 1.35982782e-02,
       -2.15840545e-02, 3.21442410e-02, 2.08056103e-02, 3.26712206e-02,
       -1.17683401e-02, 2.68545076e-02, 1.97759527e-03, 2.39987415e-03,
       2.55048908e-02, -2.12757327e-02, 3.25361639e-02, -1.94638851e-03,
       -1.88771654e-02, -1.08609861e-02, 2.01589912e-02, -9.57034412e-04,
       1.01778507e-02, 1.82480272e-02, 7.65146455e-03, 2.28300262e-02,
       2.11148765e-02, -1.82169434e-02, 1.51326135e-03, 3.07413340e-02,
       2.62784660e-02, 7.95930251e-03, 3.81130725e-03, -5.62007260e-03,
       -1.70171484e-02, -1.08229974e-02, -2.41341554e-02,
       -3.27305011e-02, 2.42613778e-02, 1.63257662e-02, 8.44241120e-03,
       8.24366405e-04, 1.64424151e-03, 3.42593528e-02, 1.11637358e-02,
       1.54077364e-02, 4.69645578e-03, 1.90945603e-02, -8.19685217e-03,
       -3.24942656e-02, 2.43632239e-03, -5.81550971e-03, -2.00100280e-02,
       7.59148877e-03, 6.35303045e-03, -2.68265381e-02, -1.65247638e-02,
       -1.30892675e-02, 1.61802378e-02, 1.12979803e-02, -1.46023547e-02,
       -1.53184682e-02, 2.23443471e-02, 8.95633083e-03, -1.20761022e-02,
       2.86033284e-02, 4.07831627e-04, -2.14298620e-04, 7.08067138e-03,
       -1.86766870e-02, -2.99929492e-02, -6.07570051e-04, 2.73477938e-03,
       -1.71621665e-02, 2.66024843e-03, -2.86157392e-02, 2.41160672e-02,
       3.04872338e-02, 1.40181528e-02, 2.31776461e-02, -1.02256341e-02,
       3.56371212e-03, 1.96349039e-03, 1.04448097e-02, 2.60910895e-02,
       -2.12190207e-02, -1.64994616e-02, -2.13222485e-02, 4.88598784e-03,
       -1.11706611e-02, 2.61881668e-03, 1.13997364e-03, 8.54965393e-03,
       1.13551794e-02, -1.10850460e-03, 1.72737632e-02, -7.21673947e-03,
       -8.24462902e-03, 5.31861372e-03, 3.19239940e-03, -1.65861957e-02,
       -9.87552456e-04, -4.09282185e-03, 3.11377528e-03, 1.35611529e-02,
       -1.61609948e-02, 1.30842663e-02, -9.90364794e-03, -5.33004198e-03,
       -2.68814899e-02, 1.89857818e-02, -1.99968182e-02, -2.49516610e-02,
       -2.91564316e-02, -2.46477202e-02, -1.41826663e-02,
       -6.18580030e-03, 1.18890498e-03, 7.31783407e-03, 6.84231659e-03,
       1.76861938e-02, -3.05683650e-02, -1.10814571e-02, 2.30836794e-02,
       -7.06416881e-03, -1.90908667e-02, -2.62934342e-03,
       -1.32168259e-03, 7.25394581e-03, -2.81265657e-02, -1.50551768e-02,
       -3.10585205e-03, -3.14926282e-02, -1.52206002e-02,
       -2.65514525e-03, -1.72357075e-02, -2.59199087e-02, 1.38696562e-02,
       1.23513592e-02, -1.38636008e-02, -2.68783160e-02, -6.43934235e-02,
       -3.30239981e-02, 1.16393715e-02, 8.98318307e-04, -2.94671841e-02,
       -2.67606764e-03, 1.48331346e-02, 3.41377705e-02, 1.75790135e-02,
       2.83016041e-02, 1.39176734e-02, -1.79261528e-02, -2.92114704e-03,
       8.64857901e-03, 2.63136681e-02, -1.25094522e-02, -9.98745020e-03,
       2.39014514e-02, -1.66295767e-02, 4.03683670e-02, 1.85422821e-03,
       1.31832380e-02, 1.42519800e-02, 3.50521095e-02, 1.56960823e-03,
       3.71044362e-03, -1.53435757e-02, -4.30739671e-02, -5.96107077e-03,
       2.19408758e-02, -9.47069656e-03, -3.79312001e-02, 5.45283221e-03,
       9.18321311e-03, -2.75925659e-02, -9.36925039e-03, -2.87609547e-02,
       -1.12825669e-02, -4.37502824e-02, -2.43890285e-03,
       -2.04483587e-02, -1.05889244e-02, 2.93361605e-03, -3.73326731e-03,
       1.06099723e-02, 6.54764799e-03, 2.35238187e-02, 2.18443293e-02,
       1.92111463e-03, -3.52425803e-03, 2.05109250e-02, -1.44840591e-02,
       -1.31776351e-02, -8.38067662e-03, -8.40863795e-04, 3.69887464e-02,
       -2.81595457e-02, 1.71100833e-02, 1.35815572e-02, -2.54904442e-02,
       -3.64512168e-02, -3.08186878e-02, -3.24866804e-03,
       -1.92587208e-02, 2.04159366e-03, 8.70561879e-03, 1.80417602e-03,
       -2.18499303e-02, -1.65538732e-02, 4.78931516e-03, -3.77065130e-02,
       -1.94638576e-02, -3.18566859e-02, -2.27476321e-02,
       -1.26032196e-02, -7.78573006e-03, -4.62973192e-02,
       -5.59021020e-03, 1.44239236e-02, -9.89953187e-05, -1.23149026e-02,
       -8.19471758e-03, 3.06742769e-02, 4.02126573e-02, 2.25818902e-02,
       7.17399409e-03, -1.65187917e-03, 4.44861274e-04, -3.84215340e-02,
       -3.21293622e-02, -1.72978267e-02, -1.15752537e-02, 1.05526475e-02,
       6.43839268e-03, -2.25634575e-02, -1.75739825e-02, -7.33987801e-03,
       -1.28150340e-02, -2.13924702e-03, 6.59784535e-04, 4.95262491e-03,
       -5.92284719e-04, 8.98302067e-03, -2.82673519e-02, 2.77146883e-03,
       2.23755166e-02, -2.88211647e-02, -9.66861844e-03, -4.60696779e-03,
       -4.89958655e-03, -2.08202451e-02, -1.69712177e-03,
       -5.93493972e-03, 1.94016285e-02, 1.20668877e-02, -2.21356493e-03,
       -1.18400902e-02, 3.13704688e-04, 3.09620276e-02, 4.54362631e-02,
       4.25723791e-02, 1.81309495e-03, 1.71465892e-02, -7.96531048e-03,
       1.82070769e-02, -2.19998299e-03, 1.07110236e-02, -1.74980052e-02,
       -5.25549240e-03, -1.18603243e-03, -1.48102827e-03, 2.25788783e-02,
       -2.32111830e-02, -2.43032742e-02, 2.22539846e-02, 3.00281625e-02,
       1.86512880e-02, -5.40684862e-03, -9.92132444e-03, -1.81026738e-02,
       2.30658054e-02, -3.71930120e-03, -3.50127416e-03, 4.30365792e-03,
       -5.54974191e-03, -8.10431130e-03, -1.17933238e-03,
       -2.04809587e-02, -4.48731780e-02, -1.90293342e-02,
       -7.97833875e-03, 8.79193470e-03, 2.21480131e-02, 2.29325742e-02,
       8.25983763e-04, 1.56175783e-02, 2.69391909e-02, -7.12902145e-03,
       1.55764958e-02, 1.22285392e-02, -2.48934720e-02, -1.73702948e-02,
       2.27242466e-02, 1.56793022e-03, 3.85793112e-02, 2.45577153e-02,
       -2.95368638e-02, 1.34214142e-03, -1.26316994e-02, 2.63031609e-02,
       -7.13533210e-03, -1.46711757e-02, 1.37675954e-02, -1.95928421e-02,
       1.17347902e-02, -3.05418530e-03, 2.06271857e-02, 3.59447561e-02,
       6.83818664e-03, -4.23376635e-02, 3.22008948e-03, 2.68725343e-02,
       -1.61202662e-02, 1.19802561e-02, -1.51380608e-02, 2.04205476e-02,
       -4.54343390e-04, -1.34214212e-03, -3.13538872e-02, 1.20400656e-02,
       9.13667586e-03, 1.29986219e-02, 3.34458984e-02, -1.29409125e-02,
       7.49358878e-05, -8.20338819e-03, 1.45997666e-02, -5.19679487e-02,
       -1.41887162e-02, -6.63192058e-03, -2.21279003e-02, 7.17104692e-03,
       1.23789441e-02, 1.15644736e-02, 1.12172244e-02, 7.73512498e-02,
       2.44581960e-02, -6.80431724e-03, 2.70196963e-02, 6.06177971e-02,
       9.16479621e-03, -2.12331209e-02, -2.19873246e-02, 1.16553381e-02,
       4.43522520e-02, 1.89206488e-02, 1.66557301e-02, 1.38172554e-02,
       1.75729655e-02, 3.83201614e-02, 4.09246907e-02, 2.65677646e-02,
       2.35423706e-02, 8.26941244e-03, -2.54196543e-02, -4.65740152e-02,
       6.92185527e-03, -7.29165226e-03, 7.53568904e-03, 7.51647260e-03,
       -1.13849873e-02, 3.75963561e-02, 1.96978822e-02, -1.67651325e-02,
       -1.52069842e-02, -1.38169015e-02, -2.52071247e-02, 3.06915268e-02,
       4.66719605e-02, -8.25493410e-03, 1.98936164e-02, 1.57477654e-04,
       -9.74205602e-03, 1.15653791e-03, -2.99939718e-02, 2.06423476e-02,
       -4.50527109e-03, -6.22428674e-03, -1.42813404e-03, 2.70527210e-02,
       2.74705105e-02, 2.00329553e-02, -3.72416675e-02, -1.65115166e-02,
       1.75933633e-02, 2.79883714e-03, -1.21774450e-04, 1.17059490e-02,
       3.21631916e-02, 1.63443629e-02, -6.77016051e-03, 3.16547602e-02,
       4.02751891e-03, 2.33549979e-02, 4.08856804e-03, 1.13717234e-02,
       -6.36175126e-02, 1.80572073e-03, 1.66588221e-02, -9.53160971e-03,
       8.64240248e-03, 7.42600253e-03, -2.97251623e-02, -2.18484597e-03,
       -1.64250843e-02, -4.17947583e-02, 6.03159936e-03, 1.45647745e-03,
       7.92191736e-03, -1.11475457e-02, -8.36910587e-03, 4.47942354e-02,
       -1.94810722e-02, 1.40013266e-02, -8.11543723e-04, -4.79393173e-03,
       -8.11819336e-04, -9.54372401e-04, 2.14077253e-02, -1.56409033e-02,
       -9.37469490e-03, -1.23096183e-02, 2.34430339e-02, 3.67887393e-02,
       1.17866127e-02, 2.87564658e-02, 5.77725982e-03, 6.51237182e-03,
       -7.66747724e-03, 2.09242795e-02, 2.95351120e-03, -1.91554520e-02,
       -1.41526917e-02, 1.58047564e-02, -1.18980305e-02, -1.21177621e-02,
       -5.85737778e-03, -2.23676097e-02, -1.17356973e-02,
       -6.30964001e-04, 3.19219045e-02, -4.70081752e-04, -7.76294805e-03,
       -1.17756603e-02, 1.23861320e-02, 4.44920920e-02, -5.04214782e-03,
       7.17920205e-03, -1.01795737e-02, -4.79408773e-03, -2.53599696e-03,
       -4.16535549e-02, 1.32557424e-02, 2.12662239e-02, 2.51095765e-03,
       -9.49909538e-03, 6.44331705e-03, 1.09945051e-02, -1.26411431e-02,
       -7.90022593e-03, -1.80330891e-02, -1.17840925e-02, 2.99127661e-02,
       3.26108448e-02, 8.69813468e-03, 2.33456641e-02, 2.32293364e-03,
       3.95587906e-02, 2.19418593e-02, -1.60614047e-02, -4.78257611e-03,
       2.76789293e-02, -8.82083084e-03, -1.91155057e-02, 1.13262981e-03,
       -4.87877429e-03, -1.62833091e-02, -1.29164783e-02,
       -1.17179565e-02, 4.81281206e-02, 3.20121832e-02, -8.80289078e-03,
       -4.63684686e-02, -6.11613691e-03, 1.36226090e-02, -1.71813954e-04,
       3.59692727e-03, -1.31408721e-02, -7.57445348e-03, 2.27651130e-02,
       -3.71186025e-02, -4.20691930e-02, 3.21028475e-03, 4.67848778e-03,
       -6.38091518e-03, 1.02254367e-02, -5.78661263e-03, 4.67449576e-02,
       6.10191748e-02, -2.31528413e-02, -1.77267026e-02, -1.01577798e-02,
       1.74105335e-02, -8.94253235e-03, 1.13344484e-03, 1.07912086e-02,
       -8.86583002e-04, 2.32572593e-02, -3.60875949e-02, 7.88620114e-03,
       1.72624215e-02, -5.84266381e-04, -8.33026320e-03, -1.07318033e-02,
       -1.61069576e-02, 3.23571339e-02, 2.90547181e-02, -2.46933252e-02,
       7.99796020e-04, 1.80265736e-02, 2.39965934e-02, -9.96228401e-03,
       1.67342101e-03, 3.24998610e-02, 4.64485632e-03, 1.80510860e-02,
       -2.45662872e-02, 1.40709514e-02, 1.62061192e-02, -6.14724495e-03,
       -4.29278091e-02, 1.79436859e-02, 9.19301715e-03, 6.48254342e-03,
       1.85664855e-02, 2.10701972e-02, 1.37899118e-02, 2.58495677e-02,
       2.69856360e-02, -3.76488897e-03, 1.52318655e-02, -1.60505213e-02,
       -3.93117731e-03, 2.38707885e-02, -3.33428965e-04, 1.83108170e-02,
       1.32153723e-02, -7.73831224e-03, -2.65153237e-02, -1.54182138e-02,
       -2.10503526e-02, 1.18893171e-02, 7.79203139e-03, -1.22183394e-02,
       -4.93730651e-03, -3.17132776e-03, -1.84691453e-03,
       -2.24106610e-02, 3.32239904e-02, 2.35009193e-02, -2.07492057e-03,
       2.07214011e-03, -2.89059733e-03, -3.33018713e-02, -1.98619626e-02,
       -2.74595767e-02, -1.27270399e-02, 9.66831855e-03, 2.97460631e-02,
       2.52659656e-02, 5.67749105e-02, -5.76539151e-03, 2.84767672e-02,
       2.21148189e-02, 4.00210451e-03, -1.29465591e-02, -1.01888869e-02,
       1.73227862e-02, 4.72714100e-03, 1.16388658e-02, -4.00759503e-02,
       -4.49379673e-03, -4.34961542e-03, -1.94324329e-02, 1.87086919e-03,
       -2.84565031e-03, -5.49397385e-03, 2.10252889e-02, -2.30694204e-04,
       5.78414742e-03, 9.13695246e-03, -3.18688676e-02, -2.08979696e-02,
       -1.30241290e-02, 1.45332459e-02, 2.10023895e-02, -1.88847911e-02,
       -1.31291496e-02, -1.57256722e-02, 2.24501044e-02, -2.96299555e-03,
       -4.46768664e-03, -1.05183143e-02, 8.69188830e-03, 2.65073217e-03,
       3.73605415e-02, 1.63975060e-02, -3.96849413e-04, 2.87851393e-02,
       -1.54442005e-02, 3.17208120e-03, 1.11042000e-02, 2.40756851e-02,
       1.41674420e-02, 6.40457554e-04, 2.90479548e-02, -1.54557161e-03,
       1.66721325e-02, 1.32836902e-03, 2.97054406e-02, -1.98522881e-02,
       1.16000595e-02, 2.71333177e-02, -1.71929058e-02, 6.01537433e-03,
       -2.20859256e-02, 2.04615705e-02, 3.51593224e-03, 1.09931631e-02,
       -1.90374050e-02, 2.41368599e-02, 1.84937697e-02, 3.33457552e-02,
       6.23927685e-03, -7.87439104e-03, 1.91938002e-02, 1.15834568e-02,
       -1.56527217e-02, -1.93049293e-02, -1.82309896e-02,
       -6.24840427e-03, -2.64733005e-02, 5.56984171e-02, -4.79773246e-03,
       2.40414497e-02, 3.81220207e-02, 4.94985878e-02, 1.38835171e-02,
       3.27210315e-02, -6.42541889e-03, 1.67588424e-02, 1.35175725e-02,
       2.24876404e-03, 4.74783890e-02, 2.52053719e-02, 9.29239485e-03,
       -2.07364336e-02, -3.88715719e-03, -5.88288298e-03, 3.14084888e-02,
       -1.02325743e-02, -2.94463076e-02, 3.79645871e-03, -2.58958014e-03,
       -1.26301693e-02, -1.47957075e-02, -1.09918891e-02,
       -2.41930336e-02, -1.37727121e-02, -1.09052267e-02,
       -1.93109252e-02, -5.56313153e-03, -3.08486633e-02, 1.28156506e-02,
       -1.00173720e-03, -2.37160386e-03, -2.02231519e-02, 2.01230478e-02,
       6.74208347e-03, -2.82292180e-02, 3.03318705e-02, 1.97680555e-02,
       2.71076038e-02, -2.41904948e-02, 6.97285729e-03, -1.76577847e-02,
       -3.85892913e-02, 9.03226156e-03, -2.37582829e-02, 1.18301762e-02,
       -6.02645334e-04, 3.06604560e-02, -2.05430631e-02, -4.09131637e-03,
       -5.67166740e-03, -6.34507975e-03, 2.63980329e-02, -1.93786677e-02,
       -3.13452855e-02, -1.39538283e-02, 3.62384529e-03, -1.27858492e-02,
       7.14299222e-03, -1.27190119e-02, -8.67814105e-03, -9.24592465e-03,
       -3.64459939e-02, 1.43854059e-02, -4.02080640e-02, -1.66657697e-02,
       -2.21032407e-02, -2.36826167e-02, -8.64431914e-03,
       -1.37576349e-02, 1.79699203e-03, -1.62073523e-02, -8.48175399e-03,
       2.50242669e-02, 1.79895796e-02, -2.88759405e-03, 1.69822890e-02,
       1.57077592e-02, -2.06025373e-02, 3.46854632e-03, -5.15711531e-02,
       -4.90698824e-03, 2.29029357e-02, 1.93661880e-02, -1.79248322e-02,
       1.07890100e-03, 1.57216731e-02, 1.06385499e-02, -2.18722448e-02,
       -1.52916247e-02, 2.10167505e-02, -1.37492232e-02, -1.67589020e-02,
       -2.03444399e-02, -6.02748431e-03, 2.27080323e-02, 7.62922980e-04,
       -2.08340283e-03, -2.07890999e-02, -2.58620940e-02,
       -4.00945172e-02, -4.79854308e-02, -4.03711461e-02,
       -5.71464980e-03, -2.74237003e-02, 2.35715881e-02, 4.69445204e-03,
       -1.25295632e-02, 2.15858384e-03, 2.34884974e-02, 2.12045703e-02,
       -3.20942700e-02, -1.04104662e-02, -5.51029621e-03, 2.15396043e-02,
       2.29899324e-02, 1.19888093e-02, 1.07957134e-02, 6.31416962e-03,
       6.91626593e-03, -1.84731663e-03, -3.88144795e-03, -6.62629353e-03,
       -2.01014299e-02, 1.00137172e-02, -8.53473693e-03, 2.04636902e-03,
       -9.66189243e-03, -3.18642631e-02, -1.13693383e-02, 1.91256255e-02,
       -1.64594743e-02, -9.92191117e-03, -4.60235775e-02,
       -3.88387106e-02, -2.76274122e-02, -1.29918829e-02,
       -3.37832458e-02, -3.11258137e-02, 4.99504060e-03, -2.13198829e-02,
       1.70990508e-02, 2.98876390e-02, 2.76311971e-02, 1.95858367e-02,
       5.85806891e-02, 3.78959291e-02, 9.36568901e-03, 3.43777426e-02,
       3.76826990e-03, 1.04409531e-02, 8.67725909e-03, -1.89339276e-02,
       1.30896305e-03, 1.92356240e-02, 2.44004317e-02, 1.30336415e-02,
       3.11004259e-02, -8.07484146e-03, 8.36644601e-03, -5.34758624e-03,
       1.38988281e-02, -1.62495598e-02, -1.33181624e-02, 1.13108158e-02,
       1.63429428e-03, -7.21181137e-03, 1.69805065e-02, 7.83127733e-03,
       5.87813463e-03, -4.09448025e-04, -3.27520967e-02, -1.67896207e-02,
       -3.08257230e-02, -3.51038277e-02, -6.91592926e-03, 1.26392432e-02,
       2.82848962e-02, 1.61901396e-02, 1.90192107e-02, 4.42974605e-02,
       -1.63870007e-02, 5.38109951e-02, 4.37095501e-02, 9.12214722e-03,
       -1.31595810e-03, -1.91968563e-03, -2.29652729e-02,
       -6.82884548e-03, -1.80875957e-02, 8.27946514e-03, -2.00936408e-03,
       -1.77576710e-02, -6.27223286e-04, -9.17755440e-03,
       -4.12149634e-03, -7.98673555e-03, 1.66087542e-02, 7.37712765e-03,
       -8.06787401e-04, 2.63996366e-02, -2.88842828e-03, 2.17413921e-02,
       1.37423119e-03, 1.37515897e-02, -2.54543591e-02, -1.43555207e-02,
       1.89376471e-03, -9.49993078e-03, -2.12285202e-02, -9.37030558e-03,
       1.18739977e-02, 3.27038765e-02, 2.64569782e-02, 3.65948770e-03,
       1.95444487e-02, 7.52598699e-03, -6.69087842e-03, 2.71062087e-03,
       2.44080299e-03, 1.70496013e-02, 8.60726926e-03, -2.24607345e-02,
       -4.24900353e-02, -2.49127690e-02, -3.52469389e-04,
       -3.44624231e-03, -4.75006038e-03, 3.30543914e-03, -2.16445252e-02,
       -2.79908814e-02, -1.71756297e-02, -1.91649236e-02,
       -3.86536424e-03, 3.58496644e-02, 2.15915143e-02, 8.56790692e-03,
       -1.10227372e-02, -2.43526697e-02, -6.35926670e-04, 2.62777833e-03,
       -2.19243970e-02, 7.74010271e-03, 2.53051650e-02, -1.08863460e-02,
       2.29859278e-02, -1.82315707e-02, -1.72246117e-02, -2.20082165e-03,
       2.25729719e-02, 3.95207491e-04, 1.04581947e-02, 1.66252069e-02,
       8.70021805e-03, -1.34154726e-02, -3.14492434e-02, -8.73648189e-03,
       2.70422250e-02, -4.44723526e-03, -4.47146371e-02, -2.03542523e-02,
       2.48738229e-02, -3.44861522e-02, 2.02709828e-02, -1.30748879e-02,
       -1.72150712e-02, 2.67941374e-02, -3.11481543e-02, -2.56183408e-02,
       1.27601894e-02, 1.42164240e-02, 1.66062661e-03, -2.73749866e-02,
       -1.70723721e-02, -5.14431521e-02, -4.38568331e-02, 2.83340365e-02,
       2.18128003e-02, 3.05274539e-02, 2.88491156e-02, 7.57839647e-04,
       -1.80658363e-02, -2.44553816e-02, -4.12776731e-02,
       -2.73674410e-02, -2.48510912e-02, 1.92617404e-03, 8.34595412e-02,
       7.38551766e-02, 3.14793363e-02, 7.11473450e-03, -4.55877185e-03,
       -5.04332110e-02, -8.58107116e-03, 5.84482588e-02, 6.27874583e-02,
       6.27340078e-02, 5.85146882e-02, 9.94934049e-03, 1.33050466e-02,
       2.07775808e-03, -2.25816779e-02, 2.91047879e-02, 3.60386893e-02,
       9.82220750e-04, -3.27083096e-02, -2.63172388e-02, -7.47791398e-03,
       -3.51118669e-02, -1.84979104e-02, 2.56966036e-02, 6.88472167e-02,
       -4.03264724e-02, -4.82184403e-02, -2.39871209e-03, 1.38496365e-02,
       3.06926295e-03, -3.14983614e-02, 1.83395259e-02, 2.82385796e-02,
       3.90137988e-03, 5.42837791e-02, 3.78275290e-02, -2.10219231e-02,
       -1.25470655e-02, 1.76538303e-02, -2.34323386e-02, 7.77365547e-03,
       4.72707599e-02, 7.89172947e-02, -1.16672851e-02, 5.22962771e-03,
       1.69480573e-02, 4.06437404e-02, 1.22659486e-02, -3.24112293e-03,
       5.24210371e-02, 6.73300698e-02, 2.54421271e-02, 9.11235344e-03,
       8.73857960e-02, 1.23595193e-01, 7.12885633e-02, 1.73734091e-02,
       -3.83378416e-02, -2.57693208e-03, 2.89018210e-02, -3.15460712e-02,
       1.02450652e-02, 6.38855025e-02, 9.82914772e-03, 7.80442217e-03,
       -3.00796367e-02, -6.15940057e-02, -5.77344634e-02, 5.42568183e-03,
       -3.11478861e-02, -4.32415046e-02, 5.10435291e-02, 8.49502012e-02,
       5.73097952e-02, -1.01608774e-02, -1.02874814e-02, 5.90386055e-03,
       4.98323031e-02, -6.79868506e-03, -4.36707549e-02, 8.37442745e-03,
       -1.90867987e-02, -2.06057075e-02, -1.42388912e-02,
       -2.95037311e-02, -7.22085871e-03, -8.82512424e-03,
       -5.79182915e-02, 3.43387015e-02, 8.15555304e-02, 2.51321886e-02,
       3.50538343e-02, -1.72721520e-02, 7.26232957e-03, -8.94488487e-03,
       3.46487351e-02, 1.71007682e-02, -8.70523788e-03, 3.91618274e-02,
       -2.74674222e-02, 7.55567243e-03, -1.83010120e-02, 9.16144066e-03,
       7.36368308e-03, 1.44127838e-03, -1.12467073e-02, -1.58979725e-02,
       9.41699650e-03, -1.60436109e-02, -1.19563257e-02, -2.10070983e-02,
       3.14704701e-02, -4.30737343e-03, -2.66734650e-03, -2.34024469e-02,
       -2.61777453e-02, -2.36373115e-03, -3.14871930e-02,
       -3.38801034e-02, -4.80329841e-02, -2.90416386e-02,
       -4.30033207e-02, -2.81296973e-03, 4.03761544e-04, 1.77314375e-02,
       3.51183638e-02, -1.09350290e-02, -2.72501516e-03, -1.17535610e-02,
       3.94192932e-04, 2.20297626e-03, 4.42256704e-02, 2.82627232e-02,
       2.91735120e-02, 5.57905585e-02, 8.61168001e-03, 6.07749773e-03,
       -8.37753620e-03, 1.06438543e-04, 6.29112683e-03, 2.29161177e-02,
       1.12777315e-02, -7.68534979e-03, 2.17032935e-02, -3.26903947e-02,
       3.06981005e-04, 3.02672177e-03, -2.63681486e-02, -4.66310000e-03,
       2.74822768e-02, -1.13667399e-02, 6.40404038e-03, -2.44077132e-03,
       -2.83260792e-02, -1.22535489e-02, -3.15818898e-02,
       -3.42267901e-02, -8.59083515e-03, -3.07289115e-03,
       -1.85242221e-02, 3.03811505e-02, 6.32349849e-02, 3.77153931e-03,
       2.48432737e-02, -9.00987163e-03, 2.22607385e-02, -8.35764571e-04,
       1.16432467e-02, 4.16682065e-02, 2.17523449e-03, 3.71548831e-02,
       -4.32476997e-02, -1.79577228e-02, -1.34787904e-02,
       -1.15637286e-02, 2.33279075e-02, 2.45878194e-02, -1.70107782e-02,
       -1.65519267e-02, -1.05738277e-02, -1.32646468e-02, 5.00584673e-03,
       -2.67314352e-02, 2.62395199e-02, 2.41918373e-03, 1.24170966e-02,
       -2.06669308e-02, -1.17956810e-02, -2.12003421e-02,
       -2.77275760e-02, -1.40019022e-02, -5.69467992e-03, 9.88218747e-03,
       -3.29953805e-02, 1.19245807e-02, 3.71397444e-04, 4.37552668e-02,
       3.92335914e-02, 1.33173009e-02, 2.27531604e-03, -1.50365215e-02,
       2.52490863e-02, 3.85822495e-03, 1.37657933e-02, 2.11169235e-02,
       3.73261273e-02, 2.29864102e-02, -1.17567247e-02, -2.69812942e-02,
       -1.63609963e-02, 3.00448816e-02, -1.87912751e-02, 5.04186526e-02,
       5.12449406e-02, 2.06436776e-02, 2.92564798e-02, -1.54641289e-02,
       -1.88327730e-02, 1.34462602e-02, 7.19120214e-03, -6.35413779e-03,
       -7.73414783e-03, -2.09628921e-02, -2.90796477e-02, 2.05103356e-06,
       -2.60288361e-02, -5.60661182e-02, 5.19180158e-03, 1.66479275e-02,
       -3.59344520e-02, -1.96233094e-02, -2.08901223e-02, 1.68460645e-02,
       2.89632231e-02, -1.80964042e-02, -3.90153117e-02, -1.89048983e-02,
       6.46200357e-03, -1.26337372e-02, 6.26437217e-02, 5.28786369e-02,
       2.52393316e-02, 1.80836879e-02, -1.16116945e-02, -9.43067949e-03,
       -7.98147696e-04, -7.96085130e-03, -1.47438673e-02, 3.03480234e-02,
       2.52991840e-02, -1.53919030e-03, 1.80069450e-02, -3.55623141e-02,
       -2.52161212e-02, -1.57766193e-02, -1.67274848e-02,
       -1.80534739e-02, 5.01249060e-02, 6.27734419e-03, 7.67586287e-03,
       1.05733331e-02, -1.48002589e-02, -6.61638472e-03, -2.89608687e-02,
       -7.15318788e-03, -5.21686412e-02, 1.64277945e-02, -9.76415258e-03,
       -1.45980390e-02, 4.79702698e-03, -8.43712036e-03, 1.58099865e-03,
       -9.90653317e-03, 4.65979660e-03, -1.99815892e-02, 1.62173416e-02,
       2.38252059e-02, -2.85299332e-03, 2.71039642e-02, 4.89861658e-03,
       -2.80287843e-02, -1.29479524e-02, -7.06495205e-03,
       -2.00931858e-02, -4.00424702e-03, -7.19689240e-04, 7.71053508e-03,
       2.31903866e-02, -8.04605149e-03, -1.74891530e-03, -2.54440326e-02,
       -1.04051623e-02, -3.81666571e-02, -1.82392017e-04,
       -1.21305129e-02, 2.07739659e-02, 2.67098807e-02, 8.01552553e-03,
       -5.61759397e-02, -3.38811614e-02, -7.18514249e-03,
       -2.49326378e-02, 1.07589522e-02, 6.81060017e-04, -2.09214967e-02,
       1.46743441e-02, -1.87497064e-02, -1.94054767e-02, 1.37960853e-03,
       1.16607985e-02, -1.67839862e-02, 1.61278981e-03, -1.81762911e-02,
       3.72554088e-04, 3.12992558e-03, -3.96746807e-02, -4.88974806e-03,
       -1.83855202e-02, -1.34959687e-02, -1.82815567e-02,
       -2.24255733e-02, -8.01459234e-03, -1.15437051e-02, 2.86660176e-02,
       2.93535972e-03, -2.10063178e-02, -7.11490586e-03, 2.26839036e-02,
       -4.18862235e-03, 8.80398729e-05, 4.41269949e-03, 9.78325866e-03,
       7.64519954e-03, -2.51668952e-02, -1.42975226e-02, -1.09013552e-02,
       1.71786845e-02, -9.62845329e-03, -3.65931727e-02, -6.01670565e-03,
       -1.49917584e-02, -1.88179109e-02, -3.42545123e-03, 3.13438022e-06,
       -3.15892212e-02, -1.82640553e-02, -4.19030488e-02,
       -2.14977171e-02, -1.33078918e-02, -3.19533609e-03,
       -1.26090122e-03, 1.03960221e-03, 8.87138583e-03, -2.19356399e-02,
       -1.59775615e-02, -2.42650956e-02, 4.98329848e-03, -9.93047003e-03,
       1.64182186e-02, 2.12157387e-02, -1.70952100e-02, -2.92641518e-04,
       -6.55648485e-03, -7.30135385e-03, -5.36050946e-02,
       -5.74821327e-03, 2.23578000e-03, -1.91900053e-03, 3.78070809e-02,
       -7.38189369e-03, 1.74272691e-06, -2.85901595e-02, -3.42348330e-02,
       -2.34790538e-02, 3.66221145e-02, 3.26959118e-02, -1.85715745e-03,
       5.21294251e-02, 1.76364686e-02, 5.48887532e-03, -7.37445289e-03,
       7.38913845e-03, -4.85849159e-04, 1.11042988e-02, -1.34127948e-03,
       -4.79042605e-02, -3.15254484e-03, -3.51664461e-02,
       -1.58753470e-02, -2.78875399e-02, -2.83219647e-02,
       -2.18135025e-03, -3.03496290e-02, -5.87831661e-02, 2.93144789e-02,
       5.78424111e-02, 2.86395028e-02, 4.90206741e-02, -4.58963960e-03,
       1.25594740e-03, 3.39317508e-03, 1.95343047e-02, 1.41906710e-02,
       1.54210767e-02, 2.47005466e-02, 1.60219558e-02, -2.19246699e-03,
       1.34053109e-02, 5.19570429e-03, 1.20310811e-02, -3.49846855e-03,
       -9.55550745e-03, -6.84235524e-03, -1.60337649e-02,
       -1.66516565e-02, 4.36717831e-02, 1.92591697e-02, 5.36655486e-02,
       4.19515967e-02, 8.58613010e-03, 2.15183827e-03, -1.72680523e-02,
       -4.23738062e-02, -1.71363372e-02, -2.94306222e-02,
       -1.05207125e-02, -2.05518920e-02, -3.00602168e-02,
       -1.93841830e-02, -2.43033487e-02, 3.85484882e-02, 5.32930903e-02,
       4.20921594e-02, 2.62763649e-02, 6.35532737e-02, 6.11312799e-02,
       3.64320055e-02, 2.77902465e-02, 4.31504361e-02, -2.06638407e-03,
       -3.09805870e-02, -2.60440242e-02, -2.12959796e-02, 4.48919795e-02,
       1.85028948e-02, -2.24901177e-02, -3.40173058e-02, -8.76543112e-03,
       3.77254398e-03, 3.72866518e-03, 5.53109776e-03, 1.34515706e-02,
       8.79605301e-03, -2.27148905e-02, -1.09013133e-02, 2.04398558e-02,
       7.80253345e-03, -4.38958481e-02, -2.25189980e-02, -1.55104073e-02,
       1.88369229e-02, -6.52117189e-03, 2.03446634e-02, 2.02661660e-02,
       -2.72757709e-02, -3.25565934e-02, -3.35651654e-04,
       -8.00229702e-03, -2.06645709e-02, 4.74735070e-03, -7.35691562e-03,
       1.58601403e-02, 2.44375281e-02, 1.08726332e-02, 1.43659124e-02,
       9.63361003e-04, -1.44309811e-02, -5.39308926e-03, 8.19919351e-03,
       -6.13565696e-03, 2.48889159e-02, 1.79639924e-02, -2.16861200e-02,
       -4.97958018e-03, 5.03646061e-02, -2.85044909e-02, -2.70987544e-02,
       -2.82352474e-02, 3.35718989e-02, -3.05192005e-02, -4.37601097e-02,
       -4.23694663e-02, 3.87991033e-02, 2.50574835e-02, -2.68185921e-02,
       -2.30217762e-02, 1.23870466e-02, 3.35572064e-02, 3.32411677e-02,
       -8.28945660e-04, -1.32556055e-02, 4.92962971e-02, 2.45213602e-02,
       -3.92051078e-02, -2.31038798e-02, -2.74846591e-02, 1.60737988e-02,
       -1.93750262e-02, -2.26037111e-02, -1.27349421e-02, 6.09115995e-02,
       1.94218382e-02, -3.96509422e-03, 1.26016084e-02, 2.96881385e-02,
       1.09519642e-02, 2.35481840e-02, -3.29131261e-02, -1.08376173e-02,
       2.33008936e-02, -3.21871787e-02, -2.41233688e-02, 5.23962937e-02,
       2.49894224e-02, 3.00640594e-02, 2.70435009e-02, 1.62685588e-02,
       -2.53505278e-02, -1.57087427e-02, -1.96941500e-03, 5.30123562e-02,
       6.33590072e-02, 3.86690721e-02, 6.38229353e-03, 5.51789328e-02,
       -1.43858406e-03, 2.86261714e-03, -2.52872203e-02, -3.99453901e-02,
       -1.85457487e-02, 3.15402448e-02, 2.50613317e-02, 2.26940196e-02,
       2.97238063e-02, 3.89296301e-02, -2.10054908e-02, -3.22696343e-02,
       -3.37583348e-02, 1.03514306e-02, 2.66494825e-02, 4.34663855e-02,
       3.28060822e-03, 4.91714031e-02, 6.01051897e-02, 6.01655841e-02,
       6.02712948e-03, 4.49947342e-02, 3.04994918e-02, -1.78008266e-02,
       -1.09106703e-02, 6.80940226e-03, 1.00466441e-02, -4.62602079e-03,
       4.49439213e-02, 3.94403599e-02, -1.50928609e-02, 4.31787019e-04,
       2.25623306e-02, 3.90191190e-03, -2.24200003e-02, -6.20303722e-03,
       2.41101850e-02, 3.77470814e-02, 1.25546881e-03, 3.50504257e-02,
       4.17740792e-02, -3.53661133e-03, 1.32584805e-02, 2.04217108e-03,
       2.96095549e-03, 6.51447661e-03, 4.36717682e-02, 5.23822419e-02,
       -8.16170033e-03, 2.82888915e-02, 3.07684075e-02, 5.22522163e-03,
       -2.71219220e-02, -1.07854344e-02, 3.26552950e-02, -1.40092531e-02,
       -1.15616629e-02, -3.36134993e-02, 2.62804925e-02, 5.81881180e-02,
       4.49176356e-02, 4.24989220e-03, 3.82496379e-02, 4.34263796e-02,
       2.52091531e-02, 7.53259659e-03, -6.68699369e-02, -3.01607791e-02,
       -3.20440643e-02, -1.80510767e-02, -1.88247673e-02,
       -1.51745975e-02, 1.04043474e-02, -1.58667583e-02, -2.38580462e-02,
       3.84503254e-03, 2.78888140e-02, 4.63698506e-02, 3.68154533e-02,
       2.43724883e-02, 6.10470176e-02, 9.52647552e-02, 4.04575095e-02,
       -3.62818465e-02, -2.43662428e-02, -1.53755331e-02, 2.96486113e-02,
       -3.04665649e-03, 5.73793240e-03, -2.03594361e-02, -3.32397223e-02,
       -2.50780117e-02, -5.85218817e-02, -2.60234252e-02, 2.98731066e-02,
       -7.89282285e-03, 2.52802065e-03, -3.32141854e-02, 3.39750648e-02,
       2.14450806e-02, 1.64471921e-02, -1.41208125e-02, -1.78595446e-02,
       8.15724302e-03, -9.68051981e-03, -2.34553199e-02, -4.08341065e-02,
       -1.12985931e-02, -2.95234118e-02, -2.73968535e-03, 7.89705012e-03,
       -2.43659690e-02, 1.61402691e-02, 2.43332740e-02, 1.72806624e-02,
       -2.98160184e-02, 3.44148977e-03, -1.72722638e-02, 2.27118470e-02,
       -3.93189155e-02, 2.24584285e-02, -7.67819770e-03, -4.16082889e-02,
       -1.20239025e-02, -4.69152853e-02, -4.37139757e-02,
       -9.68077779e-03, -1.55653730e-02, -2.49062032e-02,
       -9.90970805e-03, 2.00925898e-02, -5.77789685e-03, 3.38706337e-02,
       -2.99776718e-03, 2.93501839e-03, 7.99421500e-03, 9.08936653e-03,
       1.37018664e-02, -2.09462009e-02, 2.37745680e-02, 1.10507105e-02,
       -5.09514241e-03, -4.87896949e-02, -2.77834721e-02, 1.27293682e-02,
       1.94758410e-03, -4.12841700e-02, 1.22196926e-02, 3.01457825e-03,
       -1.29250460e-03, 3.18230968e-03, -6.70719473e-03, -4.12467821e-03,
       9.23009720e-05, 7.62755051e-03, 1.09361010e-02, -2.48948503e-02,
       2.50914856e-03, -4.71338723e-03, -2.79540811e-02, -3.79313566e-02,
       -2.74189524e-02, 2.07809601e-02, 2.90348995e-02, -2.04319935e-02,
       -8.04176496e-04, 2.05588173e-02, -4.37131710e-03, 2.41558757e-02,
       1.45923737e-02, 4.76221070e-02, -5.47469873e-03, 6.64653489e-03,
       -2.70209257e-02, -1.67627092e-02, -1.07291657e-02,
       -1.46902287e-02, 2.22233962e-02, 2.82148714e-04, 3.47839743e-02,
       -1.74140204e-02, 4.36913082e-03, -3.55231576e-02, -1.04567530e-02,
       5.69374440e-03, -1.54243447e-02, 3.25300731e-02, 1.68695319e-02,
       7.42255291e-03, 5.77661616e-04, 1.94883309e-02, -2.42485683e-02,
       -3.56261469e-02, -5.91443153e-03, -1.27807772e-02, 3.89833860e-02,
       2.04489008e-02, 7.20133027e-03, -2.62303036e-02, -1.34714283e-02,
       -4.33140509e-02, -8.95687472e-03, 1.81687567e-02, 2.42408868e-02,
       1.71120651e-02, 1.23425368e-02, 3.06371152e-02, 1.38800256e-02,
       8.89877509e-03, -2.37666592e-02, -1.38057079e-02, -6.69018459e-03,
       -3.94931575e-03, 6.33377768e-03, 2.97548100e-02, 1.57072358e-02,
       -8.95451568e-03, -2.01594941e-02, -2.03738529e-02,
       -2.76124794e-02, 1.53536899e-02, 2.65468955e-02, 4.34242301e-02,
       2.28906181e-02, 2.24932078e-02, 3.18797678e-02, 6.37533935e-03,
       -2.62272935e-02, -1.19690523e-02, -7.39885960e-03, 9.86283831e-03,
       8.38593673e-03, 1.50173353e-02, 2.43625734e-02, 1.46886269e-02,
       -9.51637886e-03, -2.57287491e-02, -6.74812077e-03,
       -4.33150399e-03, -8.23897123e-03, -7.30151442e-05, 9.29129310e-03,
       -8.38907156e-03, -6.22961856e-03, 2.50427201e-02, 1.32353054e-02,
       1.61017082e-03, 3.76488417e-02, -2.72341035e-02, 1.61942411e-02,
       1.17067695e-02, -1.76453386e-02, -2.85116229e-02, 1.44073470e-02,
       2.43632104e-02, 2.87552341e-03, 2.72347536e-02, -1.48810474e-02,
       -1.98671278e-02, 1.30934482e-02, -8.90731462e-04, 1.04204845e-02,
       -3.45531362e-03, -1.86906364e-02, 3.97171080e-03, 1.45120872e-02,
       -2.72334069e-02, -1.27199180e-02, 6.87408075e-03, 2.23470642e-03,
       -2.53130663e-02, 3.42893004e-02, 3.03447563e-02, 7.69944687e-04,
       5.12741245e-02, -2.82973330e-02, -4.10046615e-03, 8.06810684e-04,
       4.71781287e-03, -1.36282975e-02, 2.24680193e-02, -1.23554864e-03,
       4.87422291e-03, 3.23003568e-02, 1.57254413e-02, -5.57144247e-02,
       -1.60440281e-02, -4.02244832e-03, -9.65037476e-03, 2.69106384e-02,
       9.41100996e-03, -9.36904177e-03, 2.26108991e-02, -1.95355024e-02,
       1.00075379e-02, 3.18111922e-03, -1.24535151e-02, -3.76186008e-03,
       4.55428623e-02, 8.30490794e-03, 9.66157299e-03, 3.00161764e-02,
       -9.80371702e-03, -1.15482919e-02, -1.46013591e-02,
       -5.11911102e-02, 3.47028337e-02, 3.30373719e-02, 8.12516920e-03,
       1.53424847e-03, 2.98312232e-02, -1.70356631e-02, -1.61492806e-02,
       1.98548920e-02, 2.82952618e-02, -1.46999359e-02, 1.47405788e-02,
       -1.18060922e-02, 5.00899414e-03, 1.75526459e-02, -4.84971814e-02,
       -1.65081769e-02, -3.54422405e-02, 1.82248112e-02, -3.27000655e-02,
       -1.15708346e-02, -1.37297828e-02, -1.75918825e-02, 2.76190415e-02,
       -2.19182242e-02, 1.61643643e-02, 2.77648941e-02, -1.04596501e-03,
       1.36032095e-02, 3.59087512e-02, 1.13331887e-03, -1.33428760e-02,
       1.18831014e-02, -2.46264189e-02, 2.58435160e-02, -1.25308633e-02,
       -2.36976556e-02, -3.18451263e-02, 1.79165304e-02, -1.36453263e-03,
       4.15823609e-03, 2.39329152e-02, -2.33058427e-02, -5.55727119e-03,
       5.77218924e-03, 4.47552931e-03, -3.84690464e-02, -1.65430550e-02,
       7.25939451e-03, 5.04195038e-03, 2.16407981e-02, -2.06302162e-02,
       -1.23681631e-02, -3.95677090e-02, -2.05904786e-02,
       -1.38254510e-02, 8.55404232e-03, 2.16243807e-02, 2.12597242e-03,
       -2.06266530e-02, -5.69109544e-02, 6.10761624e-03, 2.44611315e-02,
       -1.57707892e-02, -2.04073843e-02, 8.18861462e-03, -4.16140119e-03,
       2.86995154e-03, 1.81863997e-02, -1.16972858e-02, -1.28341755e-02,
       -2.08746213e-02, -2.44211722e-02, -2.85723880e-02, 3.54800280e-03,
       -2.47697607e-02, 4.02717898e-03, 1.41139943e-02, 3.05628707e-03,
       4.14581858e-02, -9.80495848e-03, 1.92391817e-02, -8.83612782e-03,
       -9.17975325e-03, 3.18039320e-02, 7.76318833e-03, 2.05042772e-02,
       8.88407603e-03, 2.10078014e-03, 1.34399543e-02, 1.01573318e-02,
       -3.84098641e-03, 1.41012874e-02, 9.68673918e-03, 2.98187174e-02,
       9.44145303e-03, -2.05718935e-03, 2.22652126e-02, -2.01705899e-02,
       1.87540464e-02, -5.04444726e-03, 3.83195793e-03, -1.17054107e-02,
       1.41312955e-02, 2.15550140e-02, 3.53597198e-03, 2.35172510e-02,
       3.00325230e-02, 1.28483493e-03, -2.73488043e-03, -7.74959475e-03,
       4.87079564e-03, 3.67201045e-02, 3.34159732e-02, 2.82278154e-02,
       1.96320508e-02, 4.55117971e-02, 4.52946387e-02, 3.46454349e-03,
       6.18661521e-03, 3.81130390e-02, -1.58782247e-02, -1.00680236e-02,
       -3.79581079e-02, -3.47514376e-02, -2.86512612e-03,
       -9.52360593e-03, -1.79920495e-02, -2.95613427e-02,
       -3.53299677e-02, 3.07130814e-02, 1.83819160e-02, 7.05898786e-03,
       4.84865829e-02, 6.24705069e-02, 1.77160706e-02, 1.77814178e-02,
       3.09159998e-02, 3.21893878e-02, -3.32635641e-02, -1.47204082e-02,
       -2.15742383e-02, -7.73199694e-03, 2.74396781e-02, -8.16885475e-03,
       -3.70733179e-02, -2.87896711e-02, -4.03127410e-02, 2.35938951e-02,
       9.55533050e-03, -8.10841843e-03, 2.78283730e-02, -7.88603444e-03,
       1.77376922e-02, 1.41451582e-02, 1.29520742e-03, 5.78471599e-03,
       2.79684775e-02, -1.47930039e-02, -1.72418356e-02, -7.63620995e-03,
       -1.32532977e-02, -4.54639876e-03, -2.28538923e-02,
       -2.51483060e-02, 8.45511071e-03, 1.03035662e-02, 2.17245594e-02,
       4.29697074e-02, 4.56100181e-02, 1.03658354e-02, 3.68513688e-02,
       -1.16656218e-02, -5.45449788e-03, 9.65475757e-03, -3.42812599e-03,
       -1.83696356e-02, 1.79925538e-03, 9.70240310e-03, 3.16723459e-03,
       6.38326304e-03, -5.18319383e-03, -6.60705101e-03, 2.26208251e-02,
       2.00527478e-02, -3.21932361e-02, -1.42309638e-02, -4.64921352e-03,
       8.13666824e-03, 1.34829935e-02, 1.19273569e-02, 9.07339994e-03,
       1.24728363e-02, 1.17234420e-02, -2.37239003e-02, -1.81299504e-02,
       1.86477173e-02, -3.84310335e-02, 2.55015269e-02, -1.59266349e-02,
       -3.27957645e-02, -1.30695030e-02, -1.13781774e-02,
       -1.83347277e-02, 8.04911368e-03, 2.24255230e-02, 8.86536948e-03,
       4.40880880e-02, -1.31967496e-02, -2.06460916e-02, -3.68876196e-02,
       5.29932277e-03, -1.18759191e-02, -1.08276615e-02, 3.95513847e-02,
       -3.27081047e-03, 2.96110027e-02, -1.87221228e-03, -1.72516163e-02,
       7.39776995e-03, -1.51218986e-02, -4.13054153e-02, 7.16077629e-04,
       -8.42609815e-03, 1.52507899e-02, 6.00232519e-02, 6.78550303e-02,
       2.22593788e-02, -7.26869656e-03, 2.19791476e-02, -7.59972539e-03,
       2.02574097e-02, 2.20173458e-03, 1.70956943e-02, 6.16783462e-02,
       5.27051166e-02, 7.11436272e-02, 5.71384914e-02, -3.23418155e-02,
       -3.15916538e-02, -2.11288780e-02, -2.00563986e-02, 5.22255339e-03,
       -2.64049671e-03, 1.43784033e-02, -2.16179173e-02, -1.23347752e-02,
       -9.56038665e-03, -1.41066546e-02, -1.35727683e-02, 8.57703481e-03,
       -1.08091151e-02, 3.00615560e-02, 2.39056442e-02, 6.36360515e-03,
       2.92476360e-02, 7.90320709e-02, 5.16780503e-02, 1.85937695e-02,
       -1.38367247e-02, 2.03435887e-02, -1.15827657e-02, -2.21814718e-02,
       3.86393853e-02, 5.23926988e-02, 3.31757888e-02, 6.54097125e-02,
       4.50185277e-02, -4.45648003e-03, -4.86798212e-03, 4.34256867e-02,
       3.91690135e-02, 8.19139555e-03, -5.55761345e-03, 5.03098518e-02,
       3.04905903e-02, -1.71486549e-02, -1.94863323e-02, 3.42201744e-03,
       -2.74658445e-02, -3.95606011e-02, -1.95992514e-02, 1.43268518e-02,
       1.86279267e-02, 2.49468461e-02, 1.43592712e-02, -1.90148856e-02,
       1.51267042e-03, 1.26999347e-02, -2.68057967e-03, -2.16508973e-02,
       -2.71490347e-02, -1.26257464e-02, 3.67375501e-02, -4.16415627e-04,
       -1.41594335e-02, -2.09072884e-02, 7.85847455e-02, 1.01331361e-01,
       4.91926186e-02, -3.84502076e-02, -6.48453683e-02, -8.44712183e-03,
       -1.15435915e-02, -3.08080837e-02, -2.52191126e-02,
       -8.80102068e-03, -4.66801273e-03, 3.68348658e-02, -2.69161239e-02,
       -3.14583965e-02, 5.13019739e-03, 1.42043678e-03, -2.19450630e-02,
       2.41437610e-02, 7.14056641e-02, 1.02694154e-01, 8.62419009e-02,
       1.89481699e-03, -2.61084996e-02, -1.20622702e-02, -4.35525998e-02,
       -3.10837049e-02, -1.39376586e-02, 8.69104918e-03, -3.94703308e-03,
       7.65259117e-02, 2.07170770e-02, -1.71994250e-02, -4.50420339e-04,
       -6.57023722e-03, 1.53052341e-02, -2.53100246e-02, -1.27693368e-02,
       -1.52260112e-02, 2.15463098e-02, 5.00893965e-03, 2.79453141e-03,
       -4.48204344e-03, -4.63777930e-02, -2.66518407e-02,
       -3.69168557e-02, -2.22067218e-02, -2.18955763e-02,
       -1.00338683e-02, -1.71625651e-02, 2.60512121e-02, 2.95697618e-02,
       -6.54888945e-03, -6.64682919e-03, 1.01790223e-02, 2.92037502e-02,
       2.29504388e-02, 8.06271210e-02, 4.62974496e-02, 1.06908120e-02,
       -1.34493634e-02, 1.45429578e-02, 3.87340377e-04, 5.02493512e-03,
       3.73906805e-03, -1.52167976e-02, 1.39175775e-02, -1.17008081e-02,
       -2.74578296e-02, 1.05244955e-02, -8.78578331e-03, -2.36736238e-02,
       9.91256069e-03, 6.74701715e-03, -3.60908769e-02, 2.48084553e-02,
       9.12787300e-03, -2.72386335e-02, -1.30283390e-03, -2.98225624e-03,
       -2.04097163e-02, -3.06178350e-02, -1.63140465e-02,
       -3.07286065e-02, 1.31107382e-02, 2.45403983e-02, 1.62907038e-02,
       2.71498170e-02, 1.24801937e-02, 3.16053978e-03, 1.26828095e-02,
       1.73270423e-02, 7.27782631e-03, 3.80779728e-02, 4.72854078e-03,
       -1.08884024e-02, 1.68090314e-02, 1.99647509e-02, 9.19261388e-03,
       -1.54175907e-02, 8.92867893e-03, -1.47805887e-03, 5.80939464e-02,
       1.63842700e-02, -7.37722684e-03, 1.43536255e-02, 5.54856565e-03,
       2.82191206e-02, -3.58949117e-02, 3.14406166e-03, -2.12567709e-02,
       -6.00218400e-03, 3.76816909e-03, 5.43640554e-03, -3.41921183e-03,
       -3.24634947e-02, 6.08062698e-03, -2.04639118e-02, -1.42693808e-02,
       -3.00009996e-02, -1.07478667e-02, -2.29549464e-02, 2.23917384e-02,
       5.14932023e-03, -2.51023041e-04, 1.83256678e-02, -1.85455810e-02,
       2.44639888e-02, -1.60335191e-02, 6.76106811e-02, 9.97860730e-03,
       -1.26470169e-02, -1.03690836e-03, 1.22313090e-02, -9.37264971e-03,
       -2.05078553e-02, -1.57563351e-02, -2.55871341e-02, 4.97745648e-02,
       1.44039104e-02, -2.07550935e-02, -8.47026426e-03, 7.03512644e-03,
       1.62548330e-02, -1.22088203e-02, -1.56791247e-02, 9.88886785e-03,
       3.69517580e-02, 1.88269950e-02, -2.00454872e-02, -1.03361337e-02,
       -1.89342275e-02, 1.11018177e-02, -9.74922068e-03, -5.56662194e-02,
       -2.44938098e-02, 2.91589135e-03, -1.13824215e-02, 2.56033856e-02,
       2.93666800e-03, 5.62698906e-03, 8.12484417e-03, -2.15289630e-02,
       4.98160894e-04, 2.63691023e-02, 5.26883677e-02, 3.41741405e-02,
       4.09677774e-02, 3.11293807e-02, -5.93542913e-03, 2.06848863e-03,
       -2.59553716e-02, -2.68716272e-02, -4.77237115e-03, 1.98911261e-02,
       1.57635044e-02, 1.64294597e-02, 3.84609550e-02, -1.11332228e-02,
       -2.95633543e-03, -1.93361659e-02, -3.02544981e-02,
       -3.10294796e-02, 2.06944048e-02, -7.49376020e-04, -1.12970322e-02,
       1.57824941e-02, -3.57264541e-02, 1.13588311e-02, -1.64408777e-02,
       -1.00288009e-02, -3.74959335e-02, -9.50598344e-03,
       -4.97111585e-04, 4.22949903e-02, 3.95600088e-02, -4.98905126e-03,
       6.63217157e-03, -1.07951127e-02, -3.72163020e-02, -2.46224068e-02,
       3.03167403e-02, 2.56297030e-02, 3.74509394e-02, 1.85580365e-02,
       -1.58703215e-02, 6.93907728e-04, -2.34463136e-03, -1.79331191e-02,
       -2.68220361e-02, 2.06611492e-02, 4.08398882e-02, -1.02919610e-02,
       2.34461315e-02, -2.28926707e-02, 1.53537458e-02, -1.11277821e-02,
       -1.17993052e-03, -7.41879176e-03, 1.22851655e-02, 1.52500607e-02,
       -1.27913393e-02, 1.90394949e-02, -3.41528580e-02, -1.20390393e-02,
       -4.70647365e-02, -4.63117920e-02, 2.64750812e-02, 2.12583877e-02,
       1.06789721e-02, 1.68497898e-02, 1.58201326e-02, -7.99420755e-03,
       8.27896409e-03, -7.58129684e-03, 8.94336682e-03, -1.22500332e-02,
       5.11867413e-03, -1.25624724e-02, 8.76416545e-03, -8.69242847e-03,
       -2.96748113e-02, -1.03439670e-02, -3.21115204e-03,
       -2.45104264e-02, -1.43603226e-02, 1.06508425e-03, 3.69721511e-03,
       -1.77064072e-02, 9.32632480e-03, -1.55963907e-02, 8.95540323e-03,
       -2.02996489e-02, -1.27955666e-02, 9.45840031e-03, 4.52399924e-02,
       6.02965802e-03, -1.69188436e-03, -2.77077295e-02, -4.32527671e-03,
       1.73271243e-02, -1.69095248e-02, -2.13311836e-02, -3.62005159e-02,
       2.17196476e-02, 2.47904286e-02, 2.75661261e-03, -1.99632794e-02,
       -3.28425691e-02, -9.21638962e-03, 4.63702576e-03, -2.24251878e-02,
       -3.12596746e-02, 1.48647639e-03, -7.92620922e-05, 2.31897365e-03,
       -2.41860300e-02, -3.32596079e-02, -6.09890791e-03,
       -3.66134034e-03, -1.83397271e-02, -5.09577803e-02, 5.59579674e-03,
       6.29626957e-05, 2.43330281e-02, 1.67493876e-02, -3.36027890e-02,
       -6.83785276e-03, -3.44272121e-03, -2.77603860e-03,
       -1.99809708e-02, 2.87181954e-03, 3.65329161e-02, 4.61435504e-02,
       4.40629721e-02, -5.22319181e-03, -2.81665158e-02, -1.06209433e-02,
       1.54817691e-02, -1.00503666e-02, 3.33568826e-02, 2.01513502e-03,
       -6.51364680e-04, -6.99905632e-03, -3.34341787e-02,
       -1.51145412e-02, -2.34031733e-02, -3.00231646e-03,
       -7.08108675e-03, -1.69714261e-02, -1.84241496e-02,
       -1.87114254e-02, 9.80432596e-05, -2.79995110e-02, -1.90256070e-02,
       -3.07185594e-02, 1.02080470e-02, -6.59770740e-04, -8.07684660e-03,
       -9.52087343e-03, 2.65727658e-02, 4.48520258e-02, 3.15271094e-02,
       7.84085039e-03, -9.17745847e-03, 4.94147241e-02, 2.71534659e-02,
       6.28843904e-02, 4.49134223e-02, -4.98844683e-03, 1.00978585e-02,
       1.11762462e-02, 4.41147992e-03, -1.22667244e-02, 1.10705737e-02,
       2.22174060e-02, 2.60417182e-02, 2.89992653e-02, 6.06166525e-03,
       1.55369788e-02, 9.32270195e-03, 1.23651857e-02, -1.93243492e-02,
       2.55986326e-03, -1.39221433e-03, 3.89399342e-02, 1.05403224e-02,
       -6.87596351e-02, -2.05748621e-02, -1.67641342e-02,
       -1.50749413e-02, -2.54331939e-02, -1.45293837e-02,
       -2.65390500e-02, 2.02928409e-02, -4.51532789e-02, 1.45148393e-02,
       3.54664624e-02, 2.40656901e-02, 4.63423319e-02, 5.26037402e-02,
       2.69167181e-02, 2.54761372e-02, 3.89215313e-02, 4.13294248e-02,
       -9.23800282e-03, -2.30938233e-02, -2.81284731e-02, 2.18578707e-02,
       3.13557833e-02, -1.85859408e-02, -3.46994437e-02, -3.11703682e-02,
       -1.61043182e-02, -1.86009705e-02, 2.58044247e-02, 3.61800045e-02,
       5.40515855e-02, 2.04654783e-02, 4.20586504e-02, 5.92483021e-03,
       7.23855756e-03, -1.00646801e-02, -3.06161512e-02, -1.05242003e-02,
       -2.95573231e-02, -5.05506154e-03, 9.15672723e-03, -2.94620767e-02,
       6.50953036e-04, -4.29271385e-02, -3.05297635e-02, 7.26678316e-03,
       1.45007940e-02, 1.86727736e-02, 9.98598523e-03, -7.57515477e-03,
       -1.42790051e-03, -2.21854877e-02, -9.23365168e-03, 2.67964066e-03,
       -6.70380006e-03, -1.38553223e-02, 2.12197192e-02, 1.27651254e-02,
       -5.63158467e-03, 1.16709750e-02, -4.43613762e-03, -7.17374217e-03,
       4.64873388e-03, 1.60837192e-02, 1.53859770e-02, -1.48653910e-02,
       -8.54257494e-03, 1.12000434e-02, 3.20491306e-02, 1.42184393e-02,
       1.94348339e-02, 1.60326902e-02, -2.36070808e-02, -3.54779623e-02,
       6.69260416e-03, 1.63566880e-02, 3.07423039e-03, 2.93579735e-02,
       -2.33200919e-02, -2.20304988e-02, -3.41815539e-02, 8.89461394e-03,
       -1.46840056e-02, 1.84235405e-02, 6.91236462e-03, -1.98582932e-03,
       -6.26643363e-04, -3.57858166e-02, -3.11086588e-02,
       -2.03199126e-02, 1.97191276e-02, 7.96261989e-03, 3.47515270e-02,
       2.12992374e-02, -1.96359064e-02, -2.99532153e-02, -1.71573553e-02,
       -2.33990941e-02, 2.53044982e-02, 2.02600788e-02, -1.56349074e-02,
       -2.72605456e-02, 6.65174518e-03, 3.70620303e-02, 3.42693888e-02,
       -2.81270710e-03, 1.55069530e-02, 5.89536466e-02, 1.96555294e-02,
       2.83861719e-02, 2.92312670e-02, 3.04217879e-02, 1.58838313e-02,
       5.36878034e-03, 6.63158065e-03, 1.00471638e-02, 4.76738028e-02,
       1.21062063e-02, -3.76343541e-02, -9.09211300e-03, 1.49521949e-02,
       2.18046568e-02, -2.58183032e-02, 7.45690800e-03, -4.69106948e-04,
       2.11187117e-02, 1.67304445e-02, -2.73341071e-02, -1.05178198e-02,
       9.61002428e-03, -2.70921867e-02, -1.57819279e-02, 1.54266888e-02,
       -3.58295417e-03, 1.01046441e-02, 2.11613253e-02, 3.73794977e-03,
       -1.33952014e-02, 2.61900295e-03, 3.08475196e-02, -3.69104221e-02,
       -1.71118267e-02, 3.19292583e-03, 7.51018850e-03, 1.68690756e-02,
       -2.06189556e-03, -4.86858329e-03, 1.89995859e-02, 3.40202055e-03,
       -2.71418430e-02, -5.01079150e-02, 1.28632947e-03, 1.07798157e-02,
       7.84253515e-03, -8.55266117e-03, -2.32270323e-02, -5.83898043e-03,
       1.78008918e-02, -2.48324368e-02, -1.57912131e-02, 5.71608311e-03,
       8.84357747e-03, -3.74753680e-03, 7.28258956e-03, 2.45841444e-02,
       -4.09631804e-03, -2.54136398e-02, -1.46981655e-02,
       -1.65398698e-02, -2.31303200e-02, -2.80963089e-02,
       -4.96487366e-04, -6.29050564e-03, 1.87771525e-02, -1.15636876e-02,
       2.53284164e-02, -5.26229711e-03, -3.23649310e-02, -6.65203715e-03,
       -1.24262162e-02, 2.63145566e-02, 4.37522717e-02, 4.86273691e-02,
       -5.99472085e-03, -1.30232843e-02, -1.16933174e-02, 6.32671732e-03,
       -4.36980883e-03, 1.11811934e-03, 1.04254400e-02, 3.02010719e-02,
       4.21227179e-02, 8.98710731e-03, 3.38321961e-02, 2.20999066e-02,
       1.05934264e-02, 2.48340759e-02, -2.06722636e-02, -1.64272413e-02,
       5.64191211e-03, 7.16506178e-03, 6.11345703e-03, -3.07311257e-03,
       1.09886145e-03, -3.55541669e-02, 1.86988078e-02, 1.05521490e-03,
       -2.14681439e-02, 1.23357913e-02, 9.37513076e-04, 6.03210530e-04,
       6.58653816e-03, -7.34964944e-03, 2.18908675e-02, -1.21728715e-03,
       -1.58233866e-02, -2.95049790e-02, -1.07366983e-02,
       -9.73351765e-03, -1.93177350e-02, -7.54446909e-03, 6.48115936e-04,
       1.02693150e-02, 1.99805964e-02, -1.18540379e-03, 8.93761124e-03,
       1.33330412e-02, -1.30962012e-02, 1.62022351e-03, -2.24868883e-03,
       -3.14335525e-02, -2.85648406e-02, 6.58138096e-02, 6.83929697e-02,
       -8.76885653e-03, -1.32912062e-02, -1.78652313e-02,
       -1.77812632e-02, 2.47292835e-02, -6.25089044e-03, -3.03372610e-02,
       4.11104299e-02, 1.09706437e-02, -1.89264249e-02, 1.29256528e-02,
       2.31837854e-03, -1.91633496e-02, -1.23838149e-02, -4.36055176e-02,
       4.05392610e-03, 4.93482724e-02, 2.45952792e-02, 6.53278362e-03,
       2.98877116e-02, -1.56269334e-02, -3.70220956e-03, -7.67239183e-03,
       -2.61856820e-02, -1.30169168e-02, 1.86605025e-02, -1.80894881e-02,
       -5.10491664e-03, 1.81218069e-02, -1.84992806e-03, 1.12872235e-02,
       1.65933203e-02, 1.16944471e-02, 2.07604095e-02, 4.44573872e-02,
       1.05980327e-02, -2.27125622e-02, -2.27017663e-02, -7.29295053e-03,
       -1.84282381e-02, 9.44816973e-04, 8.27857759e-03, -1.46187255e-02,
       2.46672779e-02, -5.51917870e-03, 2.54231934e-02, 7.06835138e-03,
       -1.62902437e-02, 4.69925441e-03, 1.13618874e-03, 7.28267571e-03,
       -1.78733692e-02, 1.75695568e-02, 2.07938682e-02, 1.59456432e-02,
       1.73693858e-02, -2.96076406e-02, -2.79740319e-02, 2.26908526e-03,
       7.45994598e-03, -2.28308756e-02, 2.32839789e-02, -2.96337670e-03,
       6.59982068e-03, -9.61400475e-03, 2.08680169e-03, 1.04339477e-02,
       3.29410769e-02, 2.21693479e-02, -2.20969990e-02, 5.27664348e-02,
       1.73045844e-02, 3.67355044e-03, -9.79849324e-03, -3.99331516e-03,
       -8.55889171e-03, 9.73157957e-03, -2.68756761e-03, -3.32916826e-02,
       1.88760515e-02, 1.82167143e-02, 1.40146092e-02, 2.02045143e-02,
       -1.27393603e-02, 6.71658013e-03, 2.86718016e-03, 9.29552410e-03,
       -1.12663303e-02, 1.21719912e-02, 1.51942542e-03, -1.79343973e-03,
       7.15152128e-03, -1.89617760e-02, -1.83824990e-02, -1.96623523e-03,
       -8.58482998e-03, -5.01578161e-03, -1.39325382e-02,
       -1.82283930e-02, 1.24346502e-02, 2.69395690e-02, 2.71253083e-02,
       -1.15175755e-03, 6.25752844e-03, 3.55174839e-02, 7.46003678e-03,
       2.69106664e-02, 3.19051258e-02, 9.64744762e-03, 6.30262494e-03,
       -7.41691794e-03, 2.17093080e-02, 5.69016207e-03, 3.60160954e-02,
       -4.18384047e-03, 3.74990106e-02, -3.99002619e-02, 2.08399650e-02,
       3.49142700e-02, 1.47858041e-03, -2.04321798e-02, -2.66248472e-02,
       2.03517973e-02, -2.52328743e-03, -3.30522694e-02, 7.53842946e-03,
       -2.65628961e-03, 3.77457682e-03, -1.65424217e-02, -1.31061012e-02,
       3.90640413e-03, 1.25212343e-02, -6.08265819e-03, -1.59296338e-02,
       -2.39855796e-02, 9.04066861e-03, 3.01156864e-02, 1.08725568e-02,
       4.85048145e-02, 3.18584777e-02, 2.82147508e-02, -2.78883940e-03,
       4.53145541e-02, -2.65790708e-02, 1.59704674e-03, -6.90486701e-03,
       -8.59674625e-03, 5.81250875e-04, 2.11926103e-02, 3.10794748e-02,
       -3.21020791e-03, 7.02055730e-03, 3.16075329e-03, 2.48229224e-02,
       3.74721223e-03, -2.43690275e-02, -1.34199730e-03, 7.62113882e-03,
       1.50661562e-02, -2.56916918e-02, 8.87321867e-03, -6.62340783e-03,
       -3.60068982e-03, -2.44472772e-02, -1.93093829e-02,
       -1.57808010e-02, -4.86132316e-03, -2.98919645e-03,
       -1.75028909e-02, 8.59938096e-03, 3.54332328e-02, -1.67242326e-02,
       -6.22299640e-03, -1.47647588e-02, 1.29543096e-02, 2.54776794e-02,
       3.17003839e-02, -6.13962952e-03, 1.20605417e-02, 1.80472806e-02,
       -6.33050362e-03, -8.47114529e-03, -2.57113408e-02, 1.41744800e-02,
       1.10147642e-02, -5.17781312e-03, -2.70812772e-02, -2.46876758e-03,
       -2.29928270e-02, -1.78515892e-02, -6.45410130e-03,
       -9.69960354e-03, -3.02057881e-02, -1.89564265e-02, 6.00905018e-03,
       -1.92177612e-02, -1.15418267e-02, 2.49384418e-02, -2.08306070e-02,
       2.68451055e-04, -8.67947098e-03, -1.02318628e-02, -3.65439802e-02,
       -2.64098123e-03, -2.70194840e-02, -2.25125290e-02,
       -1.95988994e-02, 1.08604226e-02, 1.05999038e-02, 5.20438363e-04,
       1.74899548e-02, 3.35803255e-02, 2.29490129e-03, -7.53663061e-03,
       1.38357822e-02, 4.55175433e-03, -8.95500125e-04, 2.47076037e-03,
       -2.17159744e-03, 1.93160791e-02, 1.00740800e-02, -2.89483764e-03,
       -1.65896490e-02, 2.01466400e-03, -1.70168821e-02, -3.80631573e-02,
       2.03782786e-03, -1.39914565e-02, 2.21606507e-03, -1.06122354e-02,
       -2.45976485e-02, -3.77225243e-02, 2.07924042e-02, -1.17338421e-02,
       -3.72800827e-02, -8.78203101e-03, -9.95587930e-03,
       -2.00309400e-02, -4.10735421e-02, 1.09637212e-02, -1.70842651e-02,
       -7.50889117e-03, -3.28771621e-02, -6.06924202e-03,
       -3.85128707e-03, -3.47358547e-03, 1.31171476e-02, 1.42360153e-02,
       -4.18815902e-03, 4.72883042e-03, 3.03963618e-03, 1.47772059e-02,
       -1.44081451e-02, -5.11543872e-03, 1.96432768e-04, 8.15814920e-03,
       -1.39987364e-03, -2.56649032e-03, 5.82511351e-03, 3.49966064e-02,
       1.97117086e-02, 2.15862822e-02, 1.91222578e-02, -5.52869262e-03,
       -1.71354357e-02, -1.09967636e-02, 2.02644933e-02, 8.05019122e-03,
       -1.83839053e-02, -2.81728047e-04, -1.70332585e-02,
       -7.91391078e-03, -1.68073047e-02, -2.68374346e-02,
       -2.47423071e-02, -2.98187397e-02, -6.72997022e-03,
       -8.51440476e-04, 2.37893010e-03, 5.06361155e-03, 1.59010813e-02,
       1.79365091e-03, 4.47499044e-02, 3.84256542e-02, 1.21179987e-02,
       1.82532296e-02, 1.77520085e-02, 8.56567640e-03, -1.26347505e-02,
       2.74633579e-02, 3.95821873e-03, 1.39549226e-02, 3.84618994e-03,
       -4.21493594e-03, 5.99752879e-04, 6.35444000e-03, -5.21941483e-03,
       -1.34745194e-02, 5.96869597e-03, -1.06132552e-02, -2.32782792e-02,
       -1.29712047e-02, 2.34385617e-02, 6.87247282e-03, 6.81032427e-03,
       1.12315584e-02, -3.29466462e-02, -7.12356763e-03, -1.54207004e-02,
       -2.89453156e-02, -7.73122953e-03, -1.70929562e-02,
       -3.81827354e-02, -6.18639328e-02, 9.97578446e-03, 4.36967210e-04,
       2.92950571e-02, 3.67370918e-02, 4.58420031e-02, -1.22797955e-02,
       2.21897569e-02, 1.61528084e-02, 1.70427226e-02, 1.82670448e-02,
       -6.02681143e-03, 2.02577524e-02, -1.49317458e-02, -4.63396963e-03,
       1.97211169e-02, -3.21486108e-02, 8.00030946e-04, -2.27899179e-02,
       -1.73390433e-02, 3.46569307e-02, -6.22801622e-03, 2.32386440e-02,
       1.99653301e-02, -4.51896992e-03, -2.43468117e-02, -1.93271693e-02,
       -1.13033857e-02, 1.77484378e-02, 9.82077699e-03, -1.61861815e-02,
       -5.24309129e-02, -2.77263392e-02, -6.77482784e-03,
       -2.69870944e-02, -1.34099154e-02, -1.24264397e-02,
       -7.30095152e-03, 3.35926861e-02, 2.93030776e-02, 1.80816802e-03,
       -1.29018258e-02, -1.31185241e-02, 9.23762005e-03, 2.00472400e-02,
       9.23600886e-03, 2.12708637e-02, 2.34286627e-03, -2.54265238e-02,
       -8.76600016e-03, -2.10599191e-02, -1.52897332e-02,
       -2.79950415e-04, -3.28941084e-02, -4.87813987e-02,
       -1.29811745e-02, 1.42719802e-02, 2.40401886e-02, -8.91988911e-03,
       2.84613296e-02, 1.47275859e-02, 3.52369957e-02, 2.83514969e-02,
       -1.11924373e-02, -1.52620981e-02, 2.10027490e-02, 9.25938715e-04,
       -1.51196206e-02, -5.13262814e-03, -8.40086583e-03, 7.50179077e-03,
       -2.93378085e-02, -6.05345629e-02, 1.01661484e-03, -1.20163606e-02,
       -3.91736738e-02, -3.34212147e-02, -1.67573448e-02, 3.59508116e-03,
       2.31348127e-02, -1.55388182e-02, -1.51437540e-02, 3.82607505e-02,
       -2.05351580e-02, 8.48036725e-03, 1.71586825e-03, 1.80996843e-02,
       -1.46741746e-02, -2.55753007e-03, 2.07128525e-02, -1.55561436e-02,
       1.86652895e-02, 2.21048985e-02, -9.63150617e-03, 1.16439508e-02,
       3.85964452e-03, 1.29856421e-02, 3.86621505e-02, -2.05310732e-02,
       -5.28008863e-03, -8.64146370e-03, 1.99145451e-02, 2.20110267e-02,
       -2.02006102e-02, 3.06092557e-02, 1.30375670e-02, 1.56533923e-02,
       -1.37098106e-02, -2.24012379e-02, 2.02704147e-02, 1.36271794e-03,
       1.06189419e-02, -4.12554713e-03, 1.19788013e-03, 1.91839859e-02,
       -1.66485435e-03, 8.20972025e-03, 2.12900923e-03, 3.48655134e-03,
       8.56464449e-03, -1.75771825e-02, -8.52711406e-03, 1.13317845e-02,
       1.79966278e-02, -9.28675663e-03, -3.34077738e-02, 3.59620992e-03,
       1.67761184e-02, 2.18493752e-02, -4.79414035e-03, -2.41865292e-02,
       1.63891390e-02, 1.12236589e-02, 1.78451166e-02, 1.71323400e-02,
       -1.25771891e-02, 4.89870552e-03, -2.64535099e-03, 5.21092163e-03,
       -8.89186095e-03, 3.01483478e-02, -3.17692757e-03, 5.68770878e-02,
       2.35003810e-02, -7.97879975e-03, -8.20318516e-03, -1.72037538e-02,
       3.90768255e-04, 1.60918664e-02, 1.18733943e-02, 1.65011715e-02,
       1.15648564e-02, -5.06257406e-03, 7.97772966e-03, 1.05724651e-02,
       -4.27410193e-03, 1.76710114e-02, 3.36522609e-02, -1.56678504e-03,
       -1.36411535e-02, -4.84958198e-03, -1.38720512e-04, 8.46406387e-04,
       -1.13888993e-03, 1.87502578e-02, 1.45362010e-02, 5.28182741e-03,
       3.99674028e-02, 2.15068506e-03, 3.72649543e-02, 1.83297023e-02,
       3.80312733e-04, 1.46627026e-02, 5.49267381e-02, 9.88406129e-03,
       8.90876912e-03, 1.71410982e-02, -2.15621591e-02, -2.66519119e-03,
       1.53835118e-02, 5.64997550e-03, 2.77740732e-02, 1.41654732e-02,
       8.29691708e-04, -3.41094728e-03, -2.01381296e-02, 8.00065638e-04,
       2.26824973e-02, 2.12693959e-02, 1.39851905e-02, 1.25946775e-02,
       -7.88412709e-03, -1.42897386e-02, -1.00055067e-02, 9.16369201e-04,
       -1.48686077e-02, 2.68952325e-02, 4.34151711e-03, -1.70724336e-02,
       1.01412963e-02, 9.25046392e-03, -2.21168324e-02, -9.48322751e-03,
       -7.91163463e-03, -6.39611809e-03, -2.36703772e-02,
       -2.24823970e-02, 2.14853212e-02, 2.21850462e-02, -1.69643387e-02,
       1.21884830e-02, -2.43327338e-02, 5.45557169e-03, -4.29825112e-03,
       -1.43664517e-02, -2.11384371e-02, -3.77446250e-03,
       -2.08627637e-02, 2.19615526e-03, 2.32015923e-02, 1.33112734e-02,
       1.23136779e-02, 1.53122665e-02, 8.95840582e-03, -4.80901450e-03,
       1.35356747e-02, -1.87765167e-03, -6.04523858e-03, 2.79935673e-02,
       -1.07357660e-02, -1.32924337e-02, 3.77887744e-04, -2.69919429e-02,
       -3.27084470e-03, -4.42102179e-03, -3.93301398e-02,
       -2.41928026e-02, 5.44550014e-04, -2.21884176e-02, 1.12199541e-02,
       2.65160445e-02, 2.60426924e-02, -1.92754865e-02, 1.15855047e-02,
       -2.72134934e-02, -1.21285589e-02, -8.51250719e-03,
       -4.86733690e-02, -2.20330488e-02, 1.13210687e-02, -1.93274748e-02,
       -3.69936004e-02, 1.77088380e-03, -2.10087858e-02, 9.08002723e-03,
       2.56754216e-02, -1.42342076e-02, 1.22943679e-02, 1.30611751e-02,
       2.36582458e-02, 3.29416804e-03, 2.02743262e-02, 2.63822675e-02,
       6.10558735e-03, 2.94025317e-02, 1.38470354e-02, -2.38704141e-02,
       9.85089410e-03, 2.75705140e-02, -1.30861709e-02, 3.21537331e-02,
       9.21859127e-03, 1.13707865e-02, -3.08899384e-04, -2.32262071e-03,
       1.04815457e-02, 1.76296979e-02, -2.04690713e-02, -1.53644402e-02,
       1.74763065e-03, 1.37964971e-02, -2.23548822e-02, -7.85872061e-03,
       -7.05062598e-03, -2.30105389e-02, 9.76949837e-03, -2.05635279e-02,
       -1.17782494e-02, -2.36830581e-02, -2.30319775e-03, 2.67686858e-03,
       1.74039938e-02, 1.40360957e-02, 1.38974674e-02, 1.64118707e-02,
       4.18065265e-02, 5.05319191e-03, 7.29526533e-03, 9.00109857e-03,
       -1.77797694e-02, 6.52283547e-04, -2.60772370e-02, -7.70031475e-03,
       1.50507214e-02, -4.02799109e-03, -2.44253199e-03, 1.08709792e-03,
       -2.93462984e-02, 8.84159748e-03, 2.29990948e-02, -8.60518962e-03,
       -1.25999451e-02, 7.57755665e-03, 6.78499136e-03, 6.48033945e-03,
       1.80614553e-02, 2.25877808e-03, 1.16145844e-02, 1.60657857e-02,
       -3.45013216e-02, -4.17970493e-03, -9.38019436e-03,
       -1.33474851e-02, 5.73548430e-04, -7.24983262e-03, -2.81225927e-02,
       2.85775959e-02, 2.16181390e-02, -1.56366406e-03, 2.64315913e-03,
       -6.04956783e-03, 1.51196420e-02, 2.09460314e-03, 1.55393211e-02,
       2.51570512e-02, 6.66047074e-03, 4.93566040e-03, -1.99570972e-02,
       2.09390745e-03, -2.91009136e-02, -1.16107650e-02, -2.66735535e-02,
       -4.85093845e-03, -9.90443747e-04, 1.02686835e-02, 2.23254208e-02,
       -3.45627666e-02, 9.07927658e-03, 1.44197615e-02, -1.04656611e-02,
       -7.07634864e-03, -5.30629279e-03, 1.44374315e-02, -2.84055360e-02,
       1.50418410e-03, -2.06805095e-02, 2.43607699e-03, -1.51890116e-02,
       -1.24200676e-02, -1.90447774e-02, 9.38162673e-03, 1.71230268e-02,
       1.18117500e-02, -6.44262740e-03, -1.01901619e-02, -5.15682530e-03,
       -1.53045570e-02, -7.04817288e-03, -1.66613944e-02,
       -6.13442110e-03, -3.62320105e-03, -1.67225860e-02,
       -5.19715308e-04, -9.07288957e-03, -1.64654888e-02,
       -1.92354005e-02, -3.04213949e-02, 4.41489788e-03, -9.45887901e-03,
       -1.33645432e-02, -6.97792554e-03, -1.13555780e-02,
       -1.38069931e-02, 6.27785223e-04, -1.13065983e-03, 1.49228135e-02,
       8.50278884e-03, 1.19848587e-02, 1.02703285e-03, -9.46475565e-03,
       1.07412972e-02, -3.33556198e-02, 8.37916881e-03, -2.04644445e-03,
       7.39284419e-03, -1.84929464e-02, 9.81247146e-03, -8.28690082e-03,
       1.39015354e-03, 1.69251766e-02, 2.83190212e-03, -6.12507295e-03,
       -2.25469954e-02, 2.18194425e-02, 1.96747556e-02, 8.19981657e-03,
       1.84553135e-02, -2.66129598e-02, 1.83089338e-02, 3.45162675e-03,
       2.23172552e-04, 6.21648179e-03, 3.08975093e-02, -1.58279538e-02,
       9.08372831e-03, -1.57966465e-02, 1.11549683e-02, 1.51392948e-02,
       -4.18957882e-02, -1.24993017e-02, -2.58509759e-02,
       -7.93817174e-03, -3.33087854e-02, 1.87379005e-03, -5.59737301e-03,
       1.32266358e-02, -2.11831573e-02, -3.99285071e-02, -3.54733109e-03,
       2.64815101e-03, -3.99938449e-02, -5.33220395e-02, -1.86360814e-02,
       3.43638798e-03, -1.86181348e-02, 3.40025350e-02, 1.84666249e-03,
       1.14898812e-02, 2.39433404e-02, 1.99460015e-02, -4.87522862e-04,
       7.75762927e-03, 7.96040427e-03, -4.06880639e-02, -9.78133921e-03,
       1.00449296e-02, 1.79145038e-02, -2.85772630e-03, 2.72605643e-02,
       -8.09269398e-03, -1.02571363e-03, -3.03734988e-02, 1.18596544e-02,
       2.91438540e-03, -2.52134968e-02, 3.61273577e-03, 2.79505830e-02,
       -1.03498809e-02, -3.61334495e-02, 7.98392855e-03, 2.40420327e-02,
       -2.76596211e-02, -1.58007685e-02, -3.42862196e-02, 1.18538393e-02,
       -4.18084525e-02, -2.12983638e-02, -3.72622050e-02,
       -1.70864712e-03, -3.67002897e-02, 1.05392165e-03, -2.83510261e-03,
       -2.04829965e-03, 1.39213353e-02, 2.50370614e-02, 4.11827788e-02,
       6.52624154e-03, 6.54722238e-03, 3.39018763e-03, -2.54095998e-03,
       -1.97999924e-02, -8.79843533e-03, 9.31621622e-03, 1.59398578e-02,
       2.44790851e-03, -2.19177920e-02, -2.34214254e-02, -2.23275647e-02,
       -2.37286035e-02, -8.91538616e-03, -3.23966295e-02,
       -3.32758971e-03, -6.97599957e-03, 1.54442433e-02, -6.40883483e-03,
       -2.95349467e-03, -3.11672650e-02, -4.35548648e-03,
       -6.34603621e-03, -4.27598990e-02, -9.32397041e-03,
       -8.13025795e-03, -3.94343808e-02, -3.11423969e-02,
       -1.64957717e-02, -4.36577350e-02, 1.88220963e-02, 1.94492806e-02,
       1.68445203e-02, 1.75663568e-02, 2.72009615e-02, 3.55663449e-02,
       2.33086869e-02, -3.33240652e-03, 2.34537032e-02, 1.61034800e-02,
       2.05598809e-02, 6.57918630e-03, -1.19787091e-02, -1.01867924e-02,
       -1.49937486e-02, 1.02397380e-02, -7.10759079e-03, 4.79815677e-02,
       9.35342815e-03, -8.89183767e-03, -3.05598490e-02, -7.16282381e-03,
       -1.37115596e-02, -2.81767407e-03, 2.11385060e-02, -9.84570943e-03,
       -1.86647121e-02, -6.06068410e-03, 1.78767890e-02, -1.15642808e-02,
       -1.52237499e-02, -1.11210262e-02, -1.95062661e-03, 1.06296577e-02,
       -1.55522199e-02, -3.05335615e-02, 4.12358828e-02, 1.72755327e-02,
       -1.48689691e-02, 2.06339322e-02, -1.10707115e-02, -4.70559485e-03,
       9.84714832e-04, 3.17350663e-02, 9.85706970e-03, -8.29095300e-03,
       3.71388742e-03, -2.50866450e-02, 1.28814345e-02, 2.11406630e-02,
       -1.62067842e-02, 2.58160830e-02, -1.42174773e-02, -2.86222231e-02,
       -1.97494496e-03, 3.27312946e-02, -1.93726923e-02, 8.30546208e-03,
       -5.10499347e-04, 1.49976825e-02, 2.93404758e-02, 3.59303541e-02,
       -3.10690794e-02, -3.05226259e-03, 7.55602214e-03, -4.16357853e-02,
       9.11382865e-03, 5.50312456e-03, -5.09225903e-03, -4.73289797e-03,
       -3.99615802e-03, -2.08740886e-02, -6.74008671e-03, 2.01581940e-02,
       -1.19212046e-02, 3.73208150e-02, 5.53801539e-04, 5.06743928e-03,
       2.31627077e-02, -3.61640714e-02, -1.20240478e-02, -4.83833579e-03,
       7.84642156e-03, -3.91727639e-03, -5.10479847e-04, -3.47424969e-02,
       -1.49399135e-02, -7.23521644e-03, -5.51888719e-02, 6.62941625e-03,
       3.07558086e-02, 2.91647874e-02, -6.70110621e-03, 5.96763985e-03,
       -3.03028356e-02, -8.81915679e-04, -1.94316451e-02,
       -2.74202917e-02, 2.66399514e-02, -3.32141994e-03, 9.78901144e-03,
       -2.96914894e-02, -1.10669723e-02, -4.60687652e-02, 2.22940464e-02,
       9.96400882e-03, -4.17159684e-02, 1.24436663e-02, -1.10509920e+00 ]
